{
    "fc1.weight": [
        [
            -0.6759243607521057,
            -2.696587324142456,
            1.4574211835861206,
            -5.340301990509033,
            -0.5812075138092041,
            -0.2783030569553375,
            1.1532987356185913,
            -0.2899200916290283
        ],
        [
            -0.5373634696006775,
            0.6426437497138977,
            0.43845808506011963,
            -0.6830499768257141,
            2.3330202102661133,
            0.9061461091041565,
            -1.8392304182052612,
            -0.6708739399909973
        ],
        [
            -0.2248353362083435,
            -0.7889853119850159,
            -2.116459608078003,
            -0.7120891809463501,
            1.7090444564819336,
            -0.4024372398853302,
            2.911543607711792,
            0.3668210804462433
        ],
        [
            0.1937057226896286,
            -1.5180656909942627,
            1.8606433868408203,
            1.1443167924880981,
            -0.6222149729728699,
            -0.2734663188457489,
            -2.276492118835449,
            -1.3128058910369873
        ],
        [
            -0.3725203573703766,
            -0.703240692615509,
            -0.8232835531234741,
            0.1653366982936859,
            -1.4355905055999756,
            2.1113150119781494,
            0.8067338466644287,
            0.8752730488777161
        ],
        [
            2.097694158554077,
            1.1037888526916504,
            -1.673500418663025,
            0.43728896975517273,
            1.0013374090194702,
            -0.8531485795974731,
            -0.6375900506973267,
            -0.10266880691051483
        ],
        [
            1.275582194328308,
            0.1275911182165146,
            1.9454798698425293,
            -1.799707293510437,
            4.022217750549316,
            -1.1173313856124878,
            -0.5385640859603882,
            -0.47778138518333435
        ],
        [
            0.6295098662376404,
            0.34959712624549866,
            1.7455335855484009,
            1.2648359537124634,
            -2.9171395301818848,
            -1.5091063976287842,
            -0.9637243747711182,
            -0.14830425381660461
        ],
        [
            1.3400845527648926,
            0.21540896594524384,
            3.528202772140503,
            -1.8367985486984253,
            -0.9526340365409851,
            -2.003692865371704,
            -0.13890321552753448,
            -0.27651074528694153
        ],
        [
            0.4462492763996124,
            -0.643222451210022,
            -0.6613739728927612,
            3.4265310764312744,
            -0.9922915101051331,
            0.11216124892234802,
            -0.045428067445755005,
            1.6992267370224
        ],
        [
            -0.09593126177787781,
            1.0422550439834595,
            -1.6563483476638794,
            1.447197437286377,
            -0.9259042143821716,
            -0.5534412860870361,
            -0.2604787051677704,
            -0.06395848840475082
        ],
        [
            -1.0268982648849487,
            -0.5196675658226013,
            -0.0323437824845314,
            0.46376776695251465,
            -2.010399580001831,
            0.37164634466171265,
            0.7661147117614746,
            -0.14599762856960297
        ],
        [
            -0.16990293562412262,
            1.5303776264190674,
            0.23163503408432007,
            1.4338537454605103,
            2.9257397651672363,
            1.2040197849273682,
            -1.3539800643920898,
            -0.4877600073814392
        ],
        [
            1.2575488090515137,
            -0.13025669753551483,
            -0.24830840528011322,
            1.2310551404953003,
            0.947134256362915,
            0.40196090936660767,
            -0.44172459840774536,
            -0.7240114808082581
        ],
        [
            -0.4990348517894745,
            0.2871372699737549,
            -0.09250566363334656,
            -1.278359293937683,
            -0.31885772943496704,
            0.08509842306375504,
            -1.882122278213501,
            -0.9688014984130859
        ],
        [
            -1.3277795314788818,
            -1.1777466535568237,
            0.10032470524311066,
            -2.2206602096557617,
            0.31466713547706604,
            -0.3015572726726532,
            -0.2765595614910126,
            -2.277101993560791
        ]
    ],
    "fc1.bias": [
        1.3547544479370117,
        0.611920177936554,
        -0.6581917405128479,
        1.4684337377548218,
        1.251189112663269,
        0.8697882890701294,
        -1.27186119556427,
        1.7948338985443115,
        0.7515749335289001,
        2.0929346084594727,
        0.8594697713851929,
        -0.6630691289901733,
        1.0023701190948486,
        -0.8382725119590759,
        2.101116895675659,
        0.09901056438684464
    ],
    "fc2.weight": [
        [
            -0.7428197264671326,
            -0.4070585072040558,
            2.6052637100219727,
            0.9983803629875183,
            -0.2885655164718628,
            0.24646611511707306,
            2.0291881561279297,
            0.8297582864761353,
            0.7092050313949585,
            2.135732650756836,
            1.6740258932113647,
            1.0070823431015015,
            -3.0061490535736084,
            4.106628894805908,
            -0.17093242704868317,
            0.7059724926948547
        ],
        [
            -0.3617219030857086,
            -2.412749767303467,
            0.6569386124610901,
            -0.1762496680021286,
            -0.46138307452201843,
            0.9054745435714722,
            -1.624375820159912,
            3.346515655517578,
            3.930696487426758,
            -1.5296663045883179,
            2.0276694297790527,
            0.24792760610580444,
            -3.045222759246826,
            0.8538169264793396,
            -2.142620086669922,
            0.14776133000850677
        ],
        [
            4.018752574920654,
            0.8343482613563538,
            -0.3372166156768799,
            -0.9110133647918701,
            2.2702744007110596,
            -0.9316695332527161,
            -0.6194203495979309,
            -3.056541919708252,
            -0.8009480237960815,
            -1.200003981590271,
            0.46462899446487427,
            -0.9801889061927795,
            -1.4891932010650635,
            -1.082985281944275,
            0.9118884205818176,
            0.09983524680137634
        ],
        [
            -0.8933792114257812,
            1.0301177501678467,
            1.1933408975601196,
            -0.5972173810005188,
            1.386484146118164,
            0.4061553478240967,
            0.5924632549285889,
            -0.6505398154258728,
            -3.74885630607605,
            -0.6591517925262451,
            1.2430354356765747,
            1.5113091468811035,
            1.0927960872650146,
            0.697018563747406,
            0.8679512143135071,
            0.6669672131538391
        ]
    ],
    "fc2.bias": [
        -1.8734030723571777,
        1.3565243482589722,
        -1.2728657722473145,
        2.3735547065734863
    ]
}